//Numpy array shape [12, 36]
//Min -1.362776517868
//Max 1.903477072716
//Number of zeros 0

#ifndef W23_H_
#define W23_H_

#ifndef __SYNTHESIS__
dense_1_weight_t w23[432];
#else
dense_1_weight_t w23[432] = {-34.272384643554688, -15.242276191711426, -12.153550148010254, -0.517302453517914, 16.459009170532227, -0.927374601364136, -16.420297622680664, 2.281730651855469, -10.332298278808594, 1.368979692459106, -14.852247238159180, 2.289415359497070, 4.450272083282471, 15.091560363769531, 13.234894752502441, 5.019698619842529, 0.659490466117859, -10.297682762145996, -6.819073200225830, 0.061284162104130, -17.845451354980469, -12.342288970947266, 9.018982887268066, -7.944165229797363, -9.916581153869629, -9.689590454101562, 1.593392252922058, -0.548580884933472, 2.834589481353760, 13.109604835510254, -13.948617935180664, 4.110248565673828, -2.018397331237793, -6.860967636108398, 2.082887887954712, -1.957600474357605, -0.321475505828857, 0.820872783660889, 2.677054405212402, -1.768133521080017, -1.177917003631592, -1.118692636489868, 3.211776494979858, -3.037288188934326, 5.288896083831787, -0.581319391727448, 0.694460690021515, 0.631229758262634, 3.280242681503296, 6.218200206756592, -2.129676103591919, 8.349854469299316, 1.471119880676270, 7.490054130554199, 0.753753662109375, -0.399599075317383, 2.416818141937256, 1.339800357818604, -0.718787252902985, 0.338143020868301, 1.145107865333557, 5.754922389984131, -4.704513549804688, -1.252747058868408, 0.465840101242065, -3.112505197525024, 4.487011432647705, -0.808801710605621, 7.409661293029785, -8.000079154968262, 0.356041222810745, -1.234661579132080, -13.651395797729492, 4.551627635955811, 3.547161102294922, -1.346346378326416, -6.481750965118408, 0.371593445539474, -0.909239649772644, 0.803896009922028, -0.864329278469086, -0.167551159858704, 1.271770358085632, 0.128098145127296, -0.319244086742401, -8.963575363159180, -4.575497150421143, -4.347470760345459, 0.099872648715973, 1.076389431953430, 1.537157297134399, -0.342850208282471, -3.088666439056396, 1.880550146102905, -2.499561071395874, 0.960815191268921, 1.989226579666138, 5.396582126617432, 4.611053466796875, 1.478802204132080, -0.381258249282837, -1.447740316390991, -0.485423654317856, 1.209582686424255, -6.765387535095215, 0.879579961299896, 3.126605033874512, -1.396452188491821, 35.301498413085938, 16.390518188476562, 10.991186141967773, 0.457286953926086, -16.055135726928711, 0.732447206974030, 12.833724975585938, -0.869582533836365, 5.935638427734375, 2.171858549118042, 15.994698524475098, -1.975315093994141, -0.577428340911865, -16.300628662109375, -12.036094665527344, -12.248717308044434, -0.296559274196625, 9.253703117370605, 7.236478328704834, 0.100461378693581, 15.662371635437012, 13.149472236633301, -9.011061668395996, 9.156368255615234, 9.083997726440430, 8.143834114074707, 6.395058631896973, 0.768283843994141, -2.189213037490845, -12.856546401977539, 10.946484565734863, -3.122458934783936, 2.356916427612305, 10.203166007995605, 3.314955234527588, 2.006448984146118, -4.138628959655762, 9.784881591796875, -7.701581478118896, -2.161497592926025, 5.081796169281006, 0.722472250461578, -6.947623729705811, 0.428102672100067, -1.017104268074036, -5.616028785705566, 7.207549571990967, -3.425596952438354, -0.324499905109406, -1.508072257041931, -0.423026353120804, -6.807011127471924, -2.165873289108276, -6.257976055145264, -1.110751748085022, -0.680330693721771, -8.726241111755371, 6.876333713531494, 0.122669994831085, -6.020811080932617, -1.936614274978638, 7.679961681365967, 6.832388401031494, 2.089343547821045, -5.815147399902344, 1.034743905067444, 6.128062248229980, 3.326957702636719, -6.113448143005371, 0.656117796897888, -0.316450953483582, 0.792564570903778, 10.708021163940430, 10.246310234069824, -4.989016532897949, -2.966490268707275, 4.010641574859619, 1.000328898429871, -35.920978546142578, -1.863970279693604, 1.379239320755005, -0.364904999732971, 3.232958555221558, -0.646893203258514, 4.449232578277588, -6.601441383361816, 7.810013294219971, 0.764219939708710, -0.887412309646606, 4.851296424865723, -3.773882389068604, 0.953490376472473, -28.108135223388672, 7.164631843566895, 5.078193187713623, -4.744826793670654, -7.120871067047119, -7.749808311462402, 10.820018768310547, 0.171118795871735, -1.084927797317505, 1.892885923385620, -28.651664733886719, 10.953318595886230, -5.435957431793213, -21.623348236083984, 2.465915918350220, -8.539632797241211, -7.903433799743652, -3.474239349365234, 0.243321105837822, -0.380062937736511, 5.332633972167969, 2.151208877563477, 2.022930383682251, -1.463849902153015, -2.719141244888306, -1.985015749931335, 1.754704952239990, -3.623456001281738, 4.132822036743164, -2.998028755187988, 4.864254474639893, 7.019001007080078, -2.887226343154907, -2.157429456710815, -13.182174682617188, -0.038866952061653, -5.827670574188232, 5.151016235351562, 2.542974710464478, -12.306578636169434, -1.044925689697266, 11.257448196411133, -1.981187462806702, -1.172790408134460, -1.593691825866699, 5.988854408264160, 11.212390899658203, 6.184563636779785, 1.851197481155396, -7.376731395721436, 2.947922706604004, -3.116251468658447, 9.032855033874512, 11.189463615417480, -14.047230720520020, -1.882185339927673, 13.061312675476074, -3.894136667251587, -18.382831573486328, 5.108212947845459, 1.680236458778381, 5.855550289154053, 1.753978013992310, 8.817825317382812, 4.784208774566650, -9.456546783447266, 6.749723434448242, -3.826550960540771, 8.439210891723633, 2.381058931350708, -6.254682064056396, 0.979307055473328, -12.932164192199707, 6.614181041717529, 7.724326133728027, -8.186627388000488, -11.564584732055664, -5.705511093139648, 0.615724623203278, 2.294805049896240, 8.561786651611328, 10.862165451049805, -11.637836456298828, 8.550187110900879, -2.799665927886963, -4.847795963287354, 2.903936386108398, -6.381844997406006, 6.450922012329102, 26.763093948364258, 3.013844728469849, -0.924964666366577, -6.920816898345947, -2.560798168182373, -34.196998596191406, 1.623008966445923, 10.048088073730469, 0.985973894596100, 23.329315185546875, 1.722676992416382, -0.090961724519730, -5.953221797943115, 0.280752390623093, -14.521141052246094, 1.948345661163330, 6.979897975921631, 4.035674571990967, 1.044640779495239, -19.007211685180664, 21.142364501953125, -1.837882161140442, 2.050447940826416, 1.542031645774841, -7.565482616424561, 26.773376464843750, 0.171006053686142, 3.358534336090088, -8.234274864196777, -27.216566085815430, 7.212102413177490, -5.000186920166016, -20.917554855346680, 2.152885198593140, -3.181938886642456, 10.018072128295898, 6.692709445953369, 7.562778472900391, -0.397445559501648, -11.695134162902832, 1.699540257453918, 1.424039125442505, -1.628181338310242, 4.050493717193604, 0.047106776386499, -0.717159509658813, -3.311089277267456, -2.847960948944092, -9.831811904907227, -7.529915332794189, -2.769558668136597, -2.932808637619019, 6.914423465728760, 13.812906265258789, 0.466079294681549, -0.697627902030945, 0.283607631921768, -7.250504493713379, 13.122053146362305, 4.825413227081299, 2.828585863113403, 6.724539756774902, -0.596229493618011, -4.759947776794434, -9.946646690368652, -2.232836484909058, -3.401717901229858, -1.199927449226379, 3.097918748855591, 0.726092457771301, 1.352552175521851, -1.831664323806763, -6.564773082733154, 1.155098319053650, -2.088497400283813, -0.057716656476259, -0.293432414531708, -5.829917907714844, -2.137289047241211, 2.680857658386230, -3.795029640197754, 0.601609170436859, -2.534255266189575, 0.599966049194336, 9.936664581298828, -1.825383901596069, 2.551906108856201, -2.613932371139526, 5.252158164978027, -0.459596127271652, -1.080929756164551, -5.785776615142822, -4.251605510711670, 1.853045225143433, 1.728189826011658, -1.679710865020752, 3.655097484588623, -4.362958908081055, 1.981420755386353, -4.094293117523193, 0.941113770008087, -7.290192604064941, 2.577519655227661, 0.405787110328674, -5.861212253570557, -2.390504837036133, -4.859991073608398, 21.085351943969727, 2.001378059387207, -24.684366226196289, -4.457293987274170, 22.137004852294922, -1.187330603599548, -37.353851318359375, -1.755694746971130, 1.482097148895264, -1.574132204055786, 12.119773864746094, -4.834329605102539, 0.834708034992218, -21.962982177734375, 39.640460968017578, -9.078592300415039, -3.510553598403931, -16.044708251953125, -4.902245998382568, 0.224997147917747, -34.180931091308594, 7.509442806243896, 3.701504945755005, -11.197209358215332, -22.056798934936523, -27.012636184692383, 15.913613319396973, 4.364429473876953, -1.197503089904785, 8.571378707885742, -19.667821884155273, 22.258554458618164, -7.341328144073486, -17.936431884765625, -0.463554143905640, -5.726800918579102};
#endif

#endif
